{"ip":0,"fr":10,"v":"5.1.20","assets":[],"layers":[{"ty":4,"nm":"lotus2","ip":0,"st":0,"ind":1,"hix":1,"ks":{"o":{"a":0,"k":100},"or":{"a":0,"k":[0,0,0]},"a":{"a":0,"k":[200,200,0]},"p":{"s":true,"x":{"a":0,"k":275},"y":{"a":0,"k":200}},"rx":{"a":0,"k":0},"ry":{"a":0,"k":0},"rz":{"a":0,"k":0},"s":{"a":0,"k":[100,100,100]}},"shapes":[{"ty":"gr","nm":"lotus2 shape group","it":[{"ty":"sh","ks":{"a":0,"k":{"c":false,"v":[[199.679,355.121],[223.163,247.82599999999996],[351.39,201.56799999999996],[360.393,205.77899999999997],[336.445,268.549],[251.3,313.899],[49.43700000000001,245.128],[37.58500000000001,211.909],[98.93700000000001,201.147],[200,272.69399999999996],[273.817,222.96199999999996],[301.358,124.88199999999996],[294.213,115.46299999999997],[234.21500000000003,140.07199999999997],[201.98000000000002,245.37099999999998],[177.18400000000003,153.24099999999999],[102.60700000000003,108.34599999999998],[96.98800000000003,142.01599999999996],[107.61600000000003,188.18699999999995],[170.27400000000003,252.03699999999995],[241.12300000000005,135.46599999999995],[214.42400000000004,64.30599999999995],[203.17200000000003,56.44099999999995],[168.00500000000002,98.74099999999996],[172.04900000000004,220.65799999999996]],"i":[[0,0],[-44.206999999999994,33.61700000000002],[-34.264999999999986,-7.196999999999974],[-2.7939999999999827,-5.150000000000006],[15.212999999999965,-13.965000000000003],[31.960999999999956,-10.434000000000026],[40.68799999999999,63.519000000000005],[-1.7759999999999962,0.6209999999999809],[-21.979000000000013,-2.9480000000000075],[-27.950999999999993,-28.089999999999975],[-33.61500000000001,24.86500000000001],[6.692999999999984,32.99299999999998],[4.671999999999969,1.1599999999999966],[14.254999999999995,-12.141000000000005],[-16.431999999999988,-37.30799999999999],[18.121999999999986,22.788999999999987],[6.813999999999993,1.3330000000000126],[0.022999999999996135,-21.52799999999999],[-5.418000000000006,-13.424999999999983],[-30.257000000000005,-7.9979999999999905],[-0.047000000000025466,43.655],[16.076999999999998,18.590000000000003],[5.057000000000016,-0.17899999999999494],[4.141999999999996,-14.554000000000002],[-20.44500000000002,-37.38900000000001]],"o":[[-7.350999999999999,-5.660000000000025],[35.01600000000002,-26.625],[8.750999999999976,1.8379999999999939],[8.381000000000029,15.449000000000012],[-24.887,22.843999999999994],[-73.549,24.00999999999999],[-2.0829999999999984,-3.2520000000000095],[19.275,-11.084000000000003],[44.31900000000002,5.944999999999993],[29.387,-18.37700000000001],[25.923000000000002,-19.175999999999988],[-1.6019999999999754,-7.897999999999996],[-9.805000000000007,-2.4350000000000023],[-29.72800000000001,25.317000000000007],[18.240999999999985,-29.790999999999997],[-22.65299999999999,-28.485],[-2.396000000000001,3.635000000000005],[-0.016000000000005343,14.376000000000005],[11.299999999999997,28.00200000000001],[69.77099999999999,18.438999999999993],[0.025000000000005684,-24.849000000000004],[-2.276999999999987,-2.6340000000000003],[-11.443999999999988,0.40400000000000347],[-11.074999999999989,38.922],[0,0]]}}},{"ty":"st","o":{"a":0,"k":100},"c":{"a":0,"k":[0.8705882352941177,0.3411764705882353,0.15294117647058825,1]},"lc":3,"lj":1,"ml":1,"w":{"a":0,"k":4},"d":[{"n":"d","v":{"a":0,"k":2100},"nm":"0"},{"n":"g","v":{"a":0,"k":2100},"nm":"1"},{"n":"o","v":{"a":1,"k":[{"t":0,"s":[2100],"e":[0],"i":{"x":[0.515],"y":[0.955]},"o":{"x":[0.455],"y":[0.03]}},{"t":34}]},"nm":"2"}]},{"ty":"fl","o":{"a":0,"k":0},"c":{"a":0,"k":[0,0,0,0]},"r":1},{"ty":"tr","o":{"a":0,"k":100},"a":{"a":0,"k":[0,0]},"s":{"a":0,"k":[100,100]},"p":{"a":0,"k":[0,0]},"r":{"a":0,"k":0}}]}],"op":34}],"op":40,"w":550,"h":400}